digraph Tree {
node [shape=box] ;
0 [label="mean perimeter <= 98.405\nentropy = 0.954\nsamples = 398\nvalue = [149, 249]"] ;
1 [label="mean perimeter <= 85.07\nentropy = 0.573\nsamples = 280\nvalue = [38, 242]"] ;
0 -> 1 [labeldistance=2.5, labelangle=45, headlabel="True"] ;
2 [label="mean perimeter <= 71.85\nentropy = 0.274\nsamples = 191\nvalue = [9, 182]"] ;
1 -> 2 ;
3 [label="entropy = 0.0\nsamples = 72\nvalue = [0, 72]"] ;
2 -> 3 ;
4 [label="mean radius <= 11.17\nentropy = 0.387\nsamples = 119\nvalue = [9, 110]"] ;
2 -> 4 ;
5 [label="entropy = 0.0\nsamples = 2\nvalue = [2, 0]"] ;
4 -> 5 ;
6 [label="mean radius <= 12.775\nentropy = 0.327\nsamples = 117\nvalue = [7, 110]"] ;
4 -> 6 ;
7 [label="mean perimeter <= 81.12\nentropy = 0.391\nsamples = 91\nvalue = [7, 84]"] ;
6 -> 7 ;
8 [label="entropy = 0.24\nsamples = 76\nvalue = [3, 73]"] ;
7 -> 8 ;
9 [label="entropy = 0.837\nsamples = 15\nvalue = [4, 11]"] ;
7 -> 9 ;
10 [label="entropy = 0.0\nsamples = 26\nvalue = [0, 26]"] ;
6 -> 10 ;
11 [label="mean radius <= 13.31\nentropy = 0.911\nsamples = 89\nvalue = [29, 60]"] ;
1 -> 11 ;
12 [label="mean perimeter <= 85.805\nentropy = 0.811\nsamples = 8\nvalue = [6, 2]"] ;
11 -> 12 ;
13 [label="mean radius <= 12.955\nentropy = 1.0\nsamples = 4\nvalue = [2, 2]"] ;
12 -> 13 ;
14 [label="entropy = 0.0\nsamples = 1\nvalue = [1, 0]"] ;
13 -> 14 ;
15 [label="mean radius <= 13.16\nentropy = 0.918\nsamples = 3\nvalue = [1, 2]"] ;
13 -> 15 ;
16 [label="entropy = 0.0\nsamples = 2\nvalue = [0, 2]"] ;
15 -> 16 ;
17 [label="entropy = 0.0\nsamples = 1\nvalue = [1, 0]"] ;
15 -> 17 ;
18 [label="entropy = 0.0\nsamples = 4\nvalue = [4, 0]"] ;
12 -> 18 ;
19 [label="mean perimeter <= 90.37\nentropy = 0.861\nsamples = 81\nvalue = [23, 58]"] ;
11 -> 19 ;
20 [label="mean radius <= 13.615\nentropy = 0.485\nsamples = 38\nvalue = [4, 34]"] ;
19 -> 20 ;
21 [label="mean radius <= 13.6\nentropy = 0.863\nsamples = 14\nvalue = [4, 10]"] ;
20 -> 21 ;
22 [label="entropy = 0.779\nsamples = 13\nvalue = [3, 10]"] ;
21 -> 22 ;
23 [label="entropy = 0.0\nsamples = 1\nvalue = [1, 0]"] ;
21 -> 23 ;
24 [label="entropy = 0.0\nsamples = 24\nvalue = [0, 24]"] ;
20 -> 24 ;
25 [label="mean radius <= 14.195\nentropy = 0.99\nsamples = 43\nvalue = [19, 24]"] ;
19 -> 25 ;
26 [label="entropy = 0.0\nsamples = 7\nvalue = [7, 0]"] ;
25 -> 26 ;
27 [label="mean perimeter <= 93.155\nentropy = 0.918\nsamples = 36\nvalue = [12, 24]"] ;
25 -> 27 ;
28 [label="entropy = 0.0\nsamples = 4\nvalue = [0, 4]"] ;
27 -> 28 ;
29 [label="entropy = 0.954\nsamples = 32\nvalue = [12, 20]"] ;
27 -> 29 ;
30 [label="mean perimeter <= 106.75\nentropy = 0.325\nsamples = 118\nvalue = [111, 7]"] ;
0 -> 30 [labeldistance=2.5, labelangle=-45, headlabel="False"] ;
31 [label="mean radius <= 16.14\nentropy = 0.845\nsamples = 22\nvalue = [16, 6]"] ;
30 -> 31 ;
32 [label="mean perimeter <= 103.0\nentropy = 0.629\nsamples = 19\nvalue = [16, 3]"] ;
31 -> 32 ;
33 [label="mean radius <= 15.705\nentropy = 0.779\nsamples = 13\nvalue = [10, 3]"] ;
32 -> 33 ;
34 [label="mean perimeter <= 99.89\nentropy = 0.469\nsamples = 10\nvalue = [9, 1]"] ;
33 -> 34 ;
35 [label="entropy = 0.918\nsamples = 3\nvalue = [2, 1]"] ;
34 -> 35 ;
36 [label="entropy = 0.0\nsamples = 7\nvalue = [7, 0]"] ;
34 -> 36 ;
37 [label="mean radius <= 15.74\nentropy = 0.918\nsamples = 3\nvalue = [1, 2]"] ;
33 -> 37 ;
38 [label="entropy = 0.0\nsamples = 2\nvalue = [0, 2]"] ;
37 -> 38 ;
39 [label="entropy = 0.0\nsamples = 1\nvalue = [1, 0]"] ;
37 -> 39 ;
40 [label="entropy = 0.0\nsamples = 6\nvalue = [6, 0]"] ;
32 -> 40 ;
41 [label="entropy = 0.0\nsamples = 3\nvalue = [0, 3]"] ;
31 -> 41 ;
42 [label="mean perimeter <= 114.8\nentropy = 0.084\nsamples = 96\nvalue = [95, 1]"] ;
30 -> 42 ;
43 [label="mean perimeter <= 114.5\nentropy = 0.276\nsamples = 21\nvalue = [20, 1]"] ;
42 -> 43 ;
44 [label="entropy = 0.0\nsamples = 20\nvalue = [20, 0]"] ;
43 -> 44 ;
45 [label="entropy = 0.0\nsamples = 1\nvalue = [0, 1]"] ;
43 -> 45 ;
46 [label="entropy = 0.0\nsamples = 75\nvalue = [75, 0]"] ;
42 -> 46 ;
}